4 7 6 5 1 
-0.04640601953895017 -0.12327124933046336 0.36547141255523335 0.020615287974157657 0.029700219661407068 -0.09260369135155098 ;-0.29957463116872407 -0.06870151661288185 0.14920542513623647 -6.956436055441269E-4 -0.22333572994986678 9.458812353360698E-5 ;0.12202189268577542 -0.02910769362524904 0.02082538931930248 0.008658495426398094 0.2544904551358841 0.03615941236279797 ;0.2035802575179884 0.08226530328837817 -0.2798042341636135 0.034014861186676 -0.14662391048683776 -0.0208760568164383 ;0.2103224021689357 -0.039456063888825284 -0.0029616863656817573 0.11052960980762204 -0.1356087571795895 0.10374773155701067 ;0.0 0.10420605845440145 -0.3410772175694444 -0.9744207693998974 -0.24330222698779277 0.1814914038978549 ;0.336845061377895 -2.13658858702162 -1.125547322125337 -1.5880040011015362 -0.32351148167844274 0.5157518426173575 ;0.4631091905464142 -0.05066400576726715 -0.3373417287374314 0.19087819243693271 -0.6777575278084427 0.5645800642174807 
0.19227263654855145 0.080512947627506 -0.6271963150218338 -2.2883339458254413 -3.1978949821460168 ;-2.692444920625733 -0.6890470218052441 -3.5695997560693056 7.230923207428052 6.019060938553199 ;-1.063185418750214 -0.39647419304480785 -1.1994954593252214 6.286862378260824 5.836767351612873 ;-1.2187366383233134 -0.22501622938597585 -2.603520276976591 7.905643422322926 4.167355265768413 ;-2.3331487213403608 -0.6067392299657349 -1.6279682860625848 3.9354922694348864 6.277688031344918 ;2.7767069412417795 1.2340165916332124 1.778921760038675 -3.509038584876003 -5.0675332119214795 ;-0.386747404192495 -0.8955666552969674 -0.01375599903777558 0.5924987437500622 0.20668321600669803 
1.2657760795457285 ;-0.6152626750759357 ;2.118656201336053 ;-4.619050867513188 ;-8.238678276573522 ;0.7087204556847266 
