3 7 8 1 
0.025615906654936675 0.06721568159417854 -0.2311352254621926 0.0 0.1502461493358916 0.0 0.2685027525589558 0.05933008443190239 ;0.07145862406845932 0.09579278064467561 -0.14456564292386698 0.04464382511209928 0.150023065750283 0.01569263650002191 0.1933589069493047 0.05018064168054352 ;-0.011760343801628746 0.0781435030143515 -0.1272444953290852 0.049529565984586514 0.22411479436186316 0.020319965561744573 0.1774943796761654 0.0734155345953203 ;-0.016771761059092845 0.045028400911482316 -0.08782186430117746 0.0 0.22284842941802363 0.019490186376531445 0.09338594147673203 0.0470656467634419 ;-0.6912549068396453 -0.4496881054492528 0.4993154535906017 0.0 -0.20158345351006882 0.0 0.026644518905626975 0.01734930214564795 ;-1.0054851834277716 0.04134233614610973 0.9474234458410942 0.0 -0.7896511648320911 6.054311903283813E-4 0.061045510706440535 0.0191641713814739 ;-1.0862539579157444 1.4622921088325391 4.0344468488845004 0.07428493356912891 -0.9863734181497138 0.027904290356020198 0.6586968346165103 0.11074954865793703 ;0.5237975723899146 -0.33177641618434217 0.1895007391286576 -0.7356859525691024 0.31647164532207817 -0.9273250834025695 0.2603507001087415 -0.7426429456489569 
-5.608887879107915 ;8.44550740518185 ;6.9624676163400885 ;5.779845612101471 ;-3.038620180014987 ;7.165013627881012 ;1.4253323540246297 ;6.444099851163976 ;-0.28629680673767144 
