3 7 6 1 
-0.01948761084722384 0.1278504626940073 0.2506118249272218 -0.05257401313562543 0.0010668894584170102 -0.03475305599291802 ;0.0 0.11832214523155814 0.45906316834683664 -0.0908984737317555 0.09742347206710472 -0.07423895719976797 ;0.0 0.007896275557903709 -0.2476444145065668 -0.03814592733629482 -0.010366182310363934 -0.0489863667554602 ;-0.023720534351047408 -0.7712079232995206 0.19063970254782153 0.14600701361331891 0.467810400462401 0.23977170287259789 ;-0.059259636347031734 0.15125339005823613 0.3967882033962987 -0.07197450935143643 -0.08577114529243923 0.051346024579362104 ;-0.06003441051076218 -1.1675419083729257 0.19117231695351347 1.3753662423150816 -0.5982436501042904 0.042953367207183325 ;-0.08778214821767884 -2.801889275548817 0.5584711656130649 3.198461043933531 -4.203408344327222 -0.5149133218624141 ;0.8608309680528492 -0.24726719656212315 0.5092975234348878 -0.7772829736106808 -0.285723536032497 0.08091214505408084 
-2.944376894938432 ;-12.209217618571822 ;7.250946939846934 ;9.31303296003383 ;-13.023829697894785 ;-3.9114245073660396 ;-0.35229043872350974 
