4 7 5 5 1 
0.04764350333525348 0.24454030382358968 -9.736482619456834E-4 -0.10583233076078166 0.05097797933840473 ;0.08727150537218248 0.3825421148832751 -0.01333107778979907 -0.1719705773914961 0.06631465855361367 ;0.013272020352790306 -0.09122692885801505 0.005105147299406985 -0.06163521373759768 0.013829579449101286 ;-0.1294797356353625 -0.44952701445957566 0.015438239370177671 0.5096655238092413 -0.06697365808301367 ;-0.06279558845167829 -0.22653734682812407 0.0 0.28719970501025943 0.06091291884614464 ;0.33023705864699837 -0.368544232198824 -0.002401147406652429 0.329695838771729 -1.3142526612926788 ;2.395234012350464 -0.6759652352219184 0.006725154908456212 0.5227598751867848 -2.3013987335247634 ;-0.06571167118538934 -0.3327236526078716 0.9588649729946197 0.3365718345247293 0.4904422140461717 
-0.5403652044616875 -6.106227031289212 7.069842528567757 -3.4809416047794315 0.6197357222273349 ;0.08927799663074663 4.565676343492718 -0.8450985035259285 -0.6872398295979145 -0.05688575871314643 ;-0.3297527998969948 -2.551897520176294 -2.7108921099498167 0.22455918461608346 0.47908363155844 ;-0.09987645280163084 -4.098159801761297 0.17553706663014765 0.5884978404352385 0.07731250532201532 ;0.11859863176772427 4.52737617614724 -4.384392295532812 2.542443540249601 -0.22841064702201166 ;0.9605263660689458 0.6882427455749669 -0.5296375211304134 -0.06220563829209169 -0.7191355767422978 
-2.403746333796651 ;-7.272078392449321 ;7.469423714882535 ;-1.9685016203114831 ;1.4081527457146292 ;0.6264766961803923 
