3 7 9 1 
0.13813617256421792 0.09244795384099572 0.004174629065123679 0.3613135056531433 -0.8219852817406132 0.28529592964958833 0.35515406329284693 -0.013687589785873543 -0.2506273288789829 ;-0.2609179526470533 0.09129953393893217 0.0751046274985946 0.0 0.5809813754996213 -0.1930830895686672 0.0 -0.1654842295642687 -0.0032737962943410357 ;-0.18860830684352 0.15741603003261626 -0.05345038457380068 0.0 0.6292700356507754 -0.06454630326310783 0.0 -0.04858641759546231 0.3059067914463013 ;-0.01981925675989042 0.0407521742632593 -0.19283611807644718 0.2921828893411422 -0.41915277973762016 -0.25978918745582713 -0.018221877119673442 0.18245569149668958 0.44567525512457223 ;0.6736494996929403 -0.06614781498033555 0.047000778568915214 -0.034055658724249545 -0.6601764465750976 0.6871080270777773 -0.11030388310876982 -0.012842106347731318 -0.44481297107311224 ;-0.9413135346959816 0.0 -0.814531769055903 0.15721395996072868 0.7724398504673304 0.6498770079140315 0.1985491008422981 1.464426317617365 0.06330702639492787 ;-2.012145518546801 0.03929467356683398 -4.534644177597992 0.2816914160505001 0.2016656273294765 0.06638708407189517 0.0 4.503675073140441 -0.6790719875688846 ;0.4258139762677293 0.8720488317073047 0.013707156882343474 -0.5279280785263247 -0.058015028185131046 -0.5033015943009296 -0.5490346997770972 -0.9445765999507603 0.014563288337324565 
-1.9056481154933373 ;0.5611762414352538 ;-6.49999871265264 ;-0.13856021545147526 ;0.21263035631565622 ;2.0983742067128337 ;-0.8906913249522092 ;6.138270448187604 ;-1.0833848482189912 ;0.14615717005576445 
