4 7 7 5 1 
0.21230341240782238 -3.071183446427741E-4 0.013712459395335778 0.0 -0.028979660811290237 0.012608480821287144 -0.014077107557176106 ;0.4343456705982056 0.37395455533993305 -0.12402621913158533 0.06416952075136256 -0.09553967132845717 0.0 -0.04390767312554566 ;0.0 0.09264941991537674 0.0 0.0 -0.030034300900919544 0.002100492607007208 -0.01676352531509627 ;-0.42518512973312583 -0.5666005768667126 0.1956342291337092 -0.11304105474693942 0.0665775626628226 0.07163099837104915 0.04527342105275563 ;-0.15217158354006804 0.02767758696172249 0.0 -0.060353393450505964 -0.11167262355686373 0.0 0.02794331137385562 ;-0.18102008691055038 0.1463104872758597 0.0 -0.04501043583698733 1.377845778395741 0.0 -0.5606529161021362 ;-0.33752111437388743 0.12025709863660702 0.0 -0.07361391617197555 2.7706562013330736 0.0 -2.7481508139053923 ;-0.5216571569842199 -0.5671014764795015 0.6845058693318373 -0.7425338526382035 -0.630672328585455 0.8014375744290065 0.14434102095052603 
0.2584308909802759 0.539491418891356 1.8692371775276864 5.20734007011809 1.8548935133439381 ;-0.02824593735157483 3.781910600922733 1.3599030646335648 4.555697592661202 3.2086296120500757 ;-0.34851718118588265 -0.4352681674259253 -1.802652784995793 -3.5129306092253234 -2.721662205811057 ;0.5145896891644117 -0.9198425627588992 2.2569168538686615 3.760644801047193 2.338556170712281 ;-0.09976193067463342 1.7671435504436166 -1.4502545334684596 -6.263001448447973 5.264219594242173 ;-0.5634566071724356 1.1475884263605194 -2.2003151438187345 -3.3014480742624066 -2.652992945025461 ;0.4586420531774725 -2.6826918343979074 2.463837273867318 6.010090762408485 -4.900093196022404 ;-0.7136690833336226 0.09749678230335856 -0.21929843944543292 0.0054891864760227005 0.47613841538791424 
-17.186785739476864 ;2.607642096394413 ;-19.074698642668178 ;-21.865698741696864 ;5.363460352919607 ;-0.3828487853875888 
