3 7 7 1 
0.14054569069956677 -0.35709278005274786 0.002029314875526468 0.0 0.32126445029569073 -0.19783333899530822 0.09846819746819109 ;0.0978630848948887 -0.2173503176214489 0.0 0.0016375257869317044 0.23868678766617726 0.023590111718950656 0.15718962063745504 ;-0.0349313014856604 -0.18119896718823633 0.0 0.0 0.24208592987792907 0.06625083900730949 0.3284415855788543 ;-0.036170355401633374 -0.04023541184169565 0.0 0.0 0.06979652661440269 -0.23979596279179338 0.05420367172912541 ;-0.33973433177857437 0.5663655202529593 0.0 0.0 -0.47159851675058473 0.05945022093824355 -0.011455045871555582 ;-1.4478011864145675 1.4873341988770565 -0.006765134816112228 0.0 -0.42292234031293835 0.46538805345231093 -0.6422591278389007 ;-1.5907881324915778 4.020134824470341 0.0 0.0 1.7066509926648852 0.8996915200622045 -1.428574865824159 ;0.5728514607790696 0.18121152790444084 0.9835968605416323 -0.9196940948016188 -0.16406214352500115 -0.418376549891071 0.40177917085267767 
-5.176344878581702 ;7.349053828254632 ;-4.002477109977655 ;3.7413724700890536 ;2.8445071113286513 ;3.581871880179665 ;-4.807553636190627 ;0.5662378620182116 
